network unknown {
}
variable Attends {
    type discrete [ 5 ] { 0, 1, 2, 3, 4 };
}
variable GoodGrade {
    type discrete [ 5 ] { 0, 1, 2, 3, 4 };
}
variable SchoolGood {
    type discrete [ 2 ] { True, False };
}
probability ( Attends ) {
    table 9.999999999999991e-05, 0.0035999999999999977, 0.04859999999999998, 0.29159999999999997, 0.6561 ;
}
probability ( GoodGrade ) {
    table 0.24009999999999995, 0.4115999999999999, 0.2646, 0.07559999999999999, 0.0081 ;
}
probability ( SchoolGood | GoodGrade, Attends ) {
    table 0.3, 0.3, 0.3, 0.3, 0.8, 0.3, 0.3, 0.3, 0.3, 0.8, 0.9, 0.9, 0.9, 0.9, 0.95, 0.9, 0.9, 0.9, 0.9, 0.95, 0.9, 0.9, 0.9, 0.9, 0.95, 0.7, 0.7, 0.7, 0.7, 0.19999999999999996, 0.7, 0.7, 0.7, 0.7, 0.19999999999999996, 0.09999999999999998, 0.09999999999999998, 0.09999999999999998, 0.09999999999999998, 0.050000000000000044, 0.09999999999999998, 0.09999999999999998, 0.09999999999999998, 0.09999999999999998, 0.050000000000000044, 0.09999999999999998, 0.09999999999999998, 0.09999999999999998, 0.09999999999999998, 0.050000000000000044 ;
}
